digraph Tree {
node [shape=box, fontname="helvetica"] ;
edge [fontname="helvetica"] ;
0 [label="sex=female <= 0.5\ngini = 0.444\nsamples = 984\nvalue = [656, 328]"] ;
1 [label="age <= 3.5\ngini = 0.277\nsamples = 643\nvalue = [536, 107]"] ;
0 -> 1 [labeldistance=2.5, labelangle=45, headlabel="True"] ;
2 [label="pclass=3rd <= 0.5\ngini = 0.133\nsamples = 14\nvalue = [1, 13]"] ;
1 -> 2 ;
3 [label="gini = 0.0\nsamples = 9\nvalue = [0, 9]"] ;
2 -> 3 ;
4 [label="gini = 0.32\nsamples = 5\nvalue = [1, 4]"] ;
2 -> 4 ;
5 [label="pclass=1st <= 0.5\ngini = 0.254\nsamples = 629\nvalue = [535, 94]"] ;
1 -> 5 ;
6 [label="age <= 34.5\ngini = 0.191\nsamples = 496\nvalue = [443, 53]"] ;
5 -> 6 ;
7 [label="age <= 10.0\ngini = 0.206\nsamples = 454\nvalue = [401, 53]"] ;
6 -> 7 ;
8 [label="gini = 0.375\nsamples = 8\nvalue = [6, 2]"] ;
7 -> 8 ;
9 [label="age <= 18.5\ngini = 0.203\nsamples = 446\nvalue = [395, 51]"] ;
7 -> 9 ;
10 [label="gini = 0.0\nsamples = 14\nvalue = [14, 0]"] ;
9 -> 10 ;
11 [label="gini = 0.208\nsamples = 432\nvalue = [381, 51]"] ;
9 -> 11 ;
12 [label="gini = 0.0\nsamples = 42\nvalue = [42, 0]"] ;
6 -> 12 ;
13 [label="age <= 27.5\ngini = 0.426\nsamples = 133\nvalue = [92, 41]"] ;
5 -> 13 ;
14 [label="age <= 20.0\ngini = 0.48\nsamples = 15\nvalue = [6, 9]"] ;
13 -> 14 ;
15 [label="gini = 0.32\nsamples = 5\nvalue = [1, 4]"] ;
14 -> 15 ;
16 [label="age <= 24.5\ngini = 0.5\nsamples = 10\nvalue = [5, 5]"] ;
14 -> 16 ;
17 [label="gini = 0.48\nsamples = 5\nvalue = [3, 2]"] ;
16 -> 17 ;
18 [label="gini = 0.48\nsamples = 5\nvalue = [2, 3]"] ;
16 -> 18 ;
19 [label="age <= 60.5\ngini = 0.395\nsamples = 118\nvalue = [86, 32]"] ;
13 -> 19 ;
20 [label="age <= 30.5\ngini = 0.417\nsamples = 108\nvalue = [76, 32]"] ;
19 -> 20 ;
21 [label="gini = 0.245\nsamples = 7\nvalue = [6, 1]"] ;
20 -> 21 ;
22 [label="gini = 0.425\nsamples = 101\nvalue = [70, 31]"] ;
20 -> 22 ;
23 [label="gini = 0.0\nsamples = 10\nvalue = [10, 0]"] ;
19 -> 23 ;
24 [label="pclass=3rd <= 0.5\ngini = 0.456\nsamples = 341\nvalue = [120, 221]"] ;
0 -> 24 [labeldistance=2.5, labelangle=-45, headlabel="False"] ;
25 [label="age <= 56.5\ngini = 0.177\nsamples = 184\nvalue = [18, 166]"] ;
24 -> 25 ;
26 [label="age <= 38.5\ngini = 0.168\nsamples = 173\nvalue = [16, 157]"] ;
25 -> 26 ;
27 [label="age <= 21.5\ngini = 0.194\nsamples = 138\nvalue = [15, 123]"] ;
26 -> 27 ;
28 [label="age <= 5.0\ngini = 0.111\nsamples = 34\nvalue = [2, 32]"] ;
27 -> 28 ;
29 [label="gini = 0.32\nsamples = 5\nvalue = [1, 4]"] ;
28 -> 29 ;
30 [label="gini = 0.067\nsamples = 29\nvalue = [1, 28]"] ;
28 -> 30 ;
31 [label="age <= 22.5\ngini = 0.219\nsamples = 104\nvalue = [13, 91]"] ;
27 -> 31 ;
32 [label="gini = 0.444\nsamples = 6\nvalue = [2, 4]"] ;
31 -> 32 ;
33 [label="gini = 0.199\nsamples = 98\nvalue = [11, 87]"] ;
31 -> 33 ;
34 [label="age <= 49.5\ngini = 0.056\nsamples = 35\nvalue = [1, 34]"] ;
26 -> 34 ;
35 [label="gini = 0.0\nsamples = 23\nvalue = [0, 23]"] ;
34 -> 35 ;
36 [label="age <= 52.5\ngini = 0.153\nsamples = 12\nvalue = [1, 11]"] ;
34 -> 36 ;
37 [label="gini = 0.278\nsamples = 6\nvalue = [1, 5]"] ;
36 -> 37 ;
38 [label="gini = 0.0\nsamples = 6\nvalue = [0, 6]"] ;
36 -> 38 ;
39 [label="age <= 59.0\ngini = 0.298\nsamples = 11\nvalue = [2, 9]"] ;
25 -> 39 ;
40 [label="gini = 0.32\nsamples = 5\nvalue = [1, 4]"] ;
39 -> 40 ;
41 [label="gini = 0.278\nsamples = 6\nvalue = [1, 5]"] ;
39 -> 41 ;
42 [label="age <= 25.5\ngini = 0.455\nsamples = 157\nvalue = [102, 55]"] ;
24 -> 42 ;
43 [label="age <= 13.5\ngini = 0.495\nsamples = 29\nvalue = [16, 13]"] ;
42 -> 43 ;
44 [label="age <= 7.5\ngini = 0.42\nsamples = 10\nvalue = [7, 3]"] ;
43 -> 44 ;
45 [label="gini = 0.48\nsamples = 5\nvalue = [2, 3]"] ;
44 -> 45 ;
46 [label="gini = 0.0\nsamples = 5\nvalue = [5, 0]"] ;
44 -> 46 ;
47 [label="age <= 19.5\ngini = 0.499\nsamples = 19\nvalue = [9, 10]"] ;
43 -> 47 ;
48 [label="age <= 17.5\ngini = 0.486\nsamples = 12\nvalue = [5, 7]"] ;
47 -> 48 ;
49 [label="gini = 0.48\nsamples = 5\nvalue = [2, 3]"] ;
48 -> 49 ;
50 [label="gini = 0.49\nsamples = 7\nvalue = [3, 4]"] ;
48 -> 50 ;
51 [label="gini = 0.49\nsamples = 7\nvalue = [4, 3]"] ;
47 -> 51 ;
52 [label="age <= 32.097\ngini = 0.441\nsamples = 128\nvalue = [86, 42]"] ;
42 -> 52 ;
53 [label="gini = 0.43\nsamples = 118\nvalue = [81, 37]"] ;
52 -> 53 ;
54 [label="age <= 37.5\ngini = 0.5\nsamples = 10\nvalue = [5, 5]"] ;
52 -> 54 ;
55 [label="gini = 0.32\nsamples = 5\nvalue = [1, 4]"] ;
54 -> 55 ;
56 [label="gini = 0.32\nsamples = 5\nvalue = [4, 1]"] ;
54 -> 56 ;
}